svm_type c_svc
kernel_type rbf
gamma 0.08333333333333333
nr_class 2
total_sv 12
rho -0.003390371799468994
label 1 -1
nr_sv 6 6
SV
1.0 346:0.1270509269115081 5:0.1270509269115081 635:0.20354320686606026 639:0.06866801601369248 437:0.1270509269115081 168:0.1270509269115081 84:0.1270509269115081 171:0.050715492986627655 550:0.1270509269115081 362:0.1270509269115081 18:0.04466957428827426 251:0.20354320686606026 96:0.07079960017009262 661:0.1270509269115081 100:0.1270509269115081 24:0.1270509269115081 23:0.1270509269115081 667:0.1270509269115081 574:0.1270509269115081 465:0.20354320686606026 106:0.11001028113940456 479:0.1270509269115081 36:0.16529706688878418 37:0.03433400800684624 205:0.06866801601369248 113:0.16529706688878418 210:0.1270509269115081 682:0.1270509269115081 396:0.1270509269115081 299:0.08875212319715746 213:0.1270509269115081 215:0.1270509269115081 506:0.16529706688878418 692:0.06866801601369248 612:0.1270509269115081 511:0.1270509269115081 307:0.08875212319715746 308:0.2158557138457401 55:0.1270509269115081 695:0.1270509269115081 310:0.18766962457282296 408:0.23442141622641818 222:0.16529706688878418 136:0.1270509269115081 318:0.054418115190311214 227:0.1270509269115081 521:0.1270509269115081 623:0.08875212319715746 525:0.08875212319715746 72:0.1270509269115081 431:0.16529706688878418 158:0.1270509269115081 159:0.1270509269115081 712:0.2158557138457401 163:0.1270509269115081 
1.0 3:0.05084473996212277 538:0.13895862752597513 172:0.09407394760719735 171:0.03307526590622842 354:0.17903118772806198 353:0.09407394760719735 10:0.09407394760719735 12:0.09407394760719735 554:0.09407394760719735 180:0.040293503099441505 18:0.05733437203285139 20:0.10528077105745995 364:0.09407394760719735 368:0.13895862752597513 22:0.09407394760719735 379:0.05084473996212277 381:0.040293503099441505 196:0.09407394760719735 29:0.12239302764748557 28:0.06571587308050289 575:0.06571587308050289 209:0.09407394760719735 592:0.06571587308050289 604:0.09407394760719735 603:0.09407394760719735 400:0.10528077105745995 608:0.09407394760719735 217:0.12239302764748557 403:0.0854983220689814 54:0.09407394760719735 404:0.12239302764748557 57:0.05084473996212277 226:0.09407394760719735 225:0.09707031289967051 410:0.09407394760719735 421:0.09407394760719735 423:0.09407394760719735 424:0.09407394760719735 230:0.09407394760719735 426:0.09407394760719735 231:0.09407394760719735 630:0.16727770756626334 629:0.09407394760719735 631:0.06571587308050289 434:0.15982881517410646 80:0.13895862752597513 236:0.09407394760719735 636:0.06615053181245684 240:0.09407394760719735 644:0.09407394760719735 89:0.12239302764748557 651:0.06571587308050289 652:0.09407394760719735 654:0.05084473996212277 451:0.06571587308050289 95:0.0854983220689814 454:0.12239302764748557 259:0.12239302764748557 459:0.025422369981061385 460:0.13895862752597513 468:0.09407394760719735 477:0.1838433074447529 275:0.09407394760719735 274:0.13895862752597513 282:0.0854983220689814 483:0.13895862752597513 486:0.09407394760719735 489:0.09407394760719735 491:0.09407394760719735 295:0.09407394760719735 119:0.09407394760719735 120:0.09707031289967051 687:0.08638368807391146 125:0.09407394760719735 691:0.09407394760719735 501:0.09407394760719735 128:0.12239302764748557 133:0.12239302764748557 513:0.09407394760719735 515:0.06571587308050289 315:0.13895862752597513 317:0.0854983220689814 700:0.13895862752597513 702:0.025422369981061385 701:0.05084473996212277 704:0.059518389855297636 523:0.09407394760719735 524:0.0854983220689814 332:0.09407394760719735 153:0.12239302764748557 152:0.0854983220689814 155:0.23021381642702016 530:0.09407394760719735 157:0.09407394760719735 161:0.11685276188814903 338:0.09407394760719735 162:0.025422369981061385 
1.0 633:0.13488620029739753 165:0.07516583532027549 164:0.10273108575999233 436:0.13488620029739753 636:0.072902795652165 639:0.11679465217029167 539:0.12259019727588966 543:0.09422549647929193 442:0.13488620029739753 355:0.09422549647929193 177:0.13488620029739753 552:0.13488620029739753 358:0.13488620029739753 555:0.13488620029739753 245:0.13488620029739753 16:0.09422549647929193 448:0.13488620029739753 247:0.23984806571831602 18:0.0364513978260825 181:0.13488620029739753 21:0.057774098653209434 561:0.09484872391122834 94:0.13488620029739753 256:0.13488620029739753 255:0.13488620029739753 569:0.13488620029739753 570:0.13488620029739753 666:0.13488620029739753 462:0.175490992588054 194:0.058397326085145834 464:0.175490992588054 269:0.072902795652165 466:0.09422549647929193 30:0.09422549647929193 672:0.072902795652165 31:0.13488620029739753 675:0.13488620029739753 280:0.13488620029739753 481:0.057774098653209434 583:0.09422549647929193 389:0.13488620029739753 204:0.13918248358607482 37:0.058397326085145834 679:0.13488620029739753 394:0.13488620029739753 211:0.09422549647929193 593:0.13488620029739753 300:0.09422549647929193 601:0.057774098653209434 303:0.09422549647929193 401:0.13488620029739753 129:0.13488620029739753 131:0.12259019727588966 307:0.09422549647929193 693:0.19924327342765955 516:0.13488620029739753 57:0.072902795652165 59:0.09422549647929193 698:0.22916760830413857 141:0.13488620029739753 319:0.072902795652165 414:0.09422549647929193 145:0.13488620029739753 425:0.175490992588054 152:0.09422549647929193 
1.0 532:0.14441024817208423 165:0.11519936045174943 164:0.11519936045174943 440:0.17899979660803186 171:0.08252013207728043 541:0.14441024817208423 88:0.14441024817208423 175:0.11173101979761522 649:0.08854473827327662 180:0.08854473827327662 248:0.11173101979761522 21:0.11519936045174943 654:0.14536540820282354 562:0.14441024817208423 659:0.11173101979761522 370:0.11173101979761522 257:0.11173101979761522 96:0.08854473827327662 260:0.1878820645531612 98:0.14536540820282354 381:0.08854473827327662 102:0.11173101979761522 195:0.11173101979761522 194:0.08252013207728043 27:0.11173101979761522 197:0.11173101979761522 672:0.14536540820282354 385:0.11173101979761522 580:0.25678326335540386 277:0.14441024817208423 481:0.08854473827327662 202:0.11173101979761522 482:0.14536540820282354 37:0.10631709250662008 114:0.14441024817208423 492:0.14441024817208423 685:0.14441024817208423 121:0.14441024817208423 596:0.11173101979761522 397:0.11173101979761522 601:0.08854473827327662 51:0.14441024817208423 607:0.14441024817208423 609:0.14536540820282354 53:0.11173101979761522 220:0.11173101979761522 615:0.11173101979761522 311:0.14441024817208423 223:0.1878820645531612 519:0.11173101979761522 142:0.14441024817208423 318:0.08854473827327662 411:0.11173101979761522 321:0.14441024817208423 702:0.05586550989880761 704:0.14185398263022225 419:0.14536540820282354 229:0.14536540820282354 429:0.14441024817208423 162:0.05586550989880761 
1.0 165:0.08181847058427247 164:0.08181847058427247 3:0.08976205716868538 533:0.11243460226022339 167:0.11243460226022339 536:0.1801269779219764 170:0.11243460226022339 539:0.07854180928859385 171:0.04488102858434269 543:0.07854180928859385 545:0.11243460226022339 175:0.06076823881714504 180:0.04815768988002132 18:0.03038411940857252 21:0.06265459905579149 182:0.11243460226022339 563:0.11243460226022339 566:0.11243460226022339 370:0.06076823881714504 187:0.1462807900910999 189:0.11243460226022339 376:0.11243460226022339 191:0.11243460226022339 190:0.11243460226022339 379:0.06076823881714504 381:0.04815768988002132 195:0.06076823881714504 194:0.039530650742389 27:0.06076823881714504 197:0.06076823881714504 383:0.11243460226022339 30:0.07854180928859385 385:0.06076823881714504 202:0.06076823881714504 206:0.11243460226022339 596:0.079061301484778 397:0.06076823881714504 398:0.11243460226022339 611:0.1462807900910999 220:0.06076823881714504 224:0.11243460226022339 62:0.07854180928859385 61:0.11243460226022339 411:0.079061301484778 414:0.07854180928859385 419:0.079061301484778 232:0.11243460226022339 626:0.19102301668957028 631:0.11601577588432017 82:0.19992572859540386 640:0.11243460226022339 639:0.06076823881714504 438:0.11243460226022339 440:0.10324341496665713 86:0.1801269779219764 649:0.04815768988002132 249:0.16607954076452736 449:0.11243460226022339 453:0.11243460226022339 659:0.06076823881714504 257:0.06076823881714504 96:0.04815768988002132 95:0.07854180928859385 98:0.079061301484778 459:0.03038411940857252 102:0.06076823881714504 269:0.06076823881714504 466:0.11601577588432017 673:0.11243460226022339 470:0.11243460226022339 469:0.1462807900910999 475:0.11243460226022339 278:0.11243460226022339 109:0.11243460226022339 481:0.04815768988002132 287:0.11243460226022339 490:0.04815768988002132 495:0.11243460226022339 120:0.07854180928859385 299:0.07854180928859385 687:0.06076823881714504 689:0.11243460226022339 507:0.11243460226022339 130:0.11243460226022339 508:0.11243460226022339 309:0.11243460226022339 312:0.07854180928859385 313:0.11243460226022339 316:0.07854180928859385 699:0.11243460226022339 519:0.06076823881714504 702:0.03038411940857252 704:0.06265459905579149 524:0.07854180928859385 330:0.11243460226022339 329:0.11243460226022339 708:0.1462807900910999 333:0.1462807900910999 160:0.11243460226022339 162:0.03038411940857252 
1.0 531:0.08087630462229595 341:0.10522249825206453 2:0.08087630462229595 4:0.08087630462229595 535:0.11946410856077543 534:0.08087630462229595 540:0.08087630462229595 173:0.08087630462229595 542:0.10522249825206453 355:0.05649658704629787 356:0.08087630462229595 176:0.08087630462229595 549:0.07002880833141725 548:0.05649658704629787 360:0.08345230954520613 558:0.08087630462229595 18:0.021855863298030968 17:0.08087630462229595 19:0.08087630462229595 559:0.08087630462229595 365:0.08087630462229595 367:0.05649658704629787 184:0.08087630462229595 372:0.10522249825206453 186:0.08087630462229595 568:0.08087630462229595 192:0.043711726596061935 379:0.043711726596061935 193:0.08087630462229595 572:0.08087630462229595 26:0.08087630462229595 573:0.11946410856077543 575:0.05649658704629787 382:0.08087630462229595 198:0.08087630462229595 388:0.11946410856077543 204:0.09051092175345145 37:0.035014404165708626 39:0.15391488551160168 205:0.05687026746373959 43:0.043711726596061935 395:0.10522249825206453 211:0.05649658704629787 588:0.08087630462229595 49:0.1617526092445919 595:0.08087630462229595 214:0.08087630462229595 605:0.17357090477196283 216:0.14922471114219424 52:0.08087630462229595 609:0.043711726596061935 53:0.043711726596061935 402:0.08087630462229595 407:0.08087630462229595 221:0.08087630462229595 59:0.10424174202661905 62:0.05649658704629787 225:0.05649658704629787 65:0.08087630462229595 67:0.08087630462229595 417:0.11946410856077543 416:0.08087630462229595 68:0.10522249825206453 71:0.08087630462229595 624:0.08087630462229595 228:0.08087630462229595 229:0.08065242106803294 625:0.11946410856077543 428:0.08087630462229595 73:0.11946410856077543 233:0.08087630462229595 433:0.08087630462229595 638:0.05649658704629787 637:0.08087630462229595 641:0.08087630462229595 237:0.08087630462229595 239:0.10522249825206453 643:0.08087630462229595 646:0.08087630462229595 647:0.08087630462229595 648:0.10522249825206453 242:0.08087630462229595 651:0.05649658704629787 650:0.08087630462229595 446:0.08087630462229595 656:0.08087630462229595 451:0.05649658704629787 450:0.11946410856077543 93:0.08087630462229595 254:0.08087630462229595 457:0.10522249825206453 459:0.021855863298030968 463:0.08087630462229595 269:0.043711726596061935 671:0.10522249825206453 106:0.05687026746373959 273:0.08087630462229595 480:0.08087630462229595 111:0.11946410856077543 110:0.08087630462229595 482:0.08542331427501376 285:0.10522249825206453 487:0.08087630462229595 488:0.08087630462229595 490:0.0346407237482669 297:0.08087630462229595 684:0.08087630462229595 686:0.10522249825206453 497:0.11946410856077543 300:0.05649658704629787 687:0.05687026746373959 688:0.08087630462229595 122:0.11946410856077543 127:0.10522249825206453 503:0.08087630462229595 303:0.07350375439987465 692:0.043711726596061935 510:0.08087630462229595 306:0.08087630462229595 512:0.08087630462229595 135:0.08087630462229595 515:0.09051092175345145 312:0.05649658704629787 319:0.043711726596061935 318:0.0511685493274372 144:0.08087630462229595 322:0.08087630462229595 702:0.021855863298030968 701:0.05687026746373959 148:0.11946410856077543 147:0.08087630462229595 705:0.08087630462229595 327:0.08087630462229595 150:0.043711726596061935 151:0.08087630462229595 710:0.08087630462229595 527:0.08087630462229595 529:0.09598600673901896 162:0.03228376021776892 
-1.0 340:0.1280772767656588 166:0.06922273379445734 345:0.1280772767656588 79:0.08946908552803767 6:0.1280772767656588 638:0.08946908552803767 169:0.1280772767656588 87:0.11640196395660322 351:0.08946908552803767 544:0.11640196395660322 9:0.054857718630809 549:0.06922273379445734 90:0.1280772767656588 649:0.054857718630809 91:0.08946908552803767 178:0.1280772767656588 560:0.1280772767656588 561:0.06922273379445734 657:0.1280772767656588 252:0.1280772767656588 564:0.1280772767656588 658:0.1280772767656588 565:0.1280772767656588 567:0.1280772767656588 97:0.1280772767656588 456:0.1666323788350796 99:0.1280772767656588 662:0.055449486151223096 192:0.06922273379445734 665:0.1280772767656588 378:0.08946908552803767 377:0.08946908552803767 263:0.1280772767656588 265:0.1280772767656588 668:0.1280772767656588 669:0.06922273379445734 103:0.1280772767656588 386:0.054857718630809 32:0.1280772767656588 272:0.1280772767656588 576:0.11760734833492026 34:0.1280772767656588 579:0.1280772767656588 676:0.1280772767656588 276:0.1280772767656588 203:0.08946908552803767 37:0.03461136689722867 42:0.1280772767656588 584:0.08946908552803767 43:0.06922273379445734 392:0.1280772767656588 116:0.1280772767656588 45:0.15908956630236135 490:0.0810315021749988 589:0.08946908552803767 298:0.08946908552803767 212:0.1280772767656588 498:0.1280772767656588 399:0.08946908552803767 606:0.1280772767656588 305:0.08946908552803767 610:0.1280772767656588 403:0.08946908552803767 132:0.1280772767656588 134:0.1280772767656588 615:0.06922273379445734 696:0.102250371397594 514:0.11640196395660322 618:0.15908956630236135 58:0.1280772767656588 518:0.1280772767656588 140:0.0810315021749988 418:0.1280772767656588 146:0.06386136522429096 703:0.1280772767656588 528:0.08946908552803767 334:0.08946908552803767 74:0.1280772767656588 711:0.1280772767656588 
-1.0 339:0.09915652851480752 166:0.07671796282317032 81:0.14194509836286556 348:0.2096701217950619 7:0.2274045630522592 642:0.09915652851480752 350:0.14194509836286556 9:0.08980534906098958 11:0.14194509836286556 553:0.14194509836286556 359:0.14194509836286556 371:0.11332173350489776 185:0.1588547072125434 455:0.09915652851480752 662:0.05666086675244888 663:0.14194509836286556 571:0.14194509836286556 664:0.14194509836286556 264:0.09915652851480752 670:0.14194509836286556 471:0.07671796282317032 387:0.14194509836286556 199:0.09915652851480752 476:0.07671796282317032 581:0.18467483070756238 282:0.09915652851480752 38:0.18467483070756238 286:0.14194509836286556 288:0.2096701217950619 391:0.14194509836286556 584:0.16846396768074712 291:0.14194509836286556 681:0.09915652851480752 46:0.09915652851480752 490:0.06079754710322236 298:0.12900561786367545 599:0.14194509836286556 301:0.14194509836286556 690:0.14194509836286556 302:0.18467483070756238 692:0.07671796282317032 614:0.09915652851480752 616:0.14194509836286556 617:0.14194509836286556 697:0.14194509836286556 517:0.14194509836286556 314:0.14194509836286556 139:0.14194509836286556 64:0.14194509836286556 146:0.0651707588151661 622:0.18467483070756238 150:0.07671796282317032 709:0.14194509836286556 331:0.14194509836286556 
-1.0 342:0.13203602852507287 3:0.07136234533305728 78:0.13203602852507287 636:0.09284455183923905 439:0.09223449332473324 645:0.13203602852507287 444:0.07136234533305728 357:0.13203602852507287 91:0.09223449332473324 92:0.1717828336194649 15:0.13203602852507287 243:0.09223449332473324 179:0.2512764438082489 16:0.09223449332473324 653:0.13203602852507287 561:0.07136234533305728 253:0.13203602852507287 258:0.1717828336194649 261:0.13203602852507287 262:0.13203602852507287 459:0.03568117266652864 378:0.09223449332473324 267:0.13203602852507287 104:0.13203602852507287 386:0.0565533206582046 473:0.13203602852507287 33:0.1362415305082623 577:0.13203602852507287 478:0.13203602852507287 35:0.13203602852507287 678:0.1950332241231568 583:0.09223449332473324 284:0.13203602852507287 205:0.07136234533305728 290:0.13203602852507287 680:0.13203602852507287 44:0.13203602852507287 681:0.09223449332473324 46:0.09223449332473324 294:0.13203602852507287 587:0.13203602852507287 48:0.11999984245034719 118:0.13203602852507287 594:0.13203602852507287 597:0.13203602852507287 50:0.13203602852507287 600:0.13203602852507287 131:0.09223449332473324 219:0.13203602852507287 696:0.07136234533305728 409:0.13203602852507287 63:0.1950332241231568 317:0.11999984245034719 620:0.13203602852507287 413:0.1950332241231568 420:0.13203602852507287 154:0.13203602852507287 335:0.13203602852507287 156:0.13203602852507287 76:0.13203602852507287 161:0.09223449332473324 
-1.0 339:0.07627530305964329 1:0.14205951832615937 343:0.10919004081351653 166:0.05901463022257686 634:0.10919004081351653 347:0.1612869300893527 441:0.14205951832615937 238:0.07627530305964329 537:0.10919004081351653 352:0.14205951832615937 8:0.10919004081351653 544:0.07627530305964329 9:0.04676798794835487 444:0.05901463022257686 361:0.14205951832615937 244:0.10919004081351653 556:0.10919004081351653 447:0.1749289958388022 248:0.05901463022257686 20:0.07627530305964329 655:0.10919004081351653 250:0.10919004081351653 371:0.05901463022257686 374:0.14205951832615937 373:0.10919004081351653 188:0.10919004081351653 375:0.07627530305964329 662:0.04358588232059482 380:0.07627530305964329 266:0.10919004081351653 268:0.10919004081351653 25:0.10919004081351653 105:0.07627530305964329 474:0.10919004081351653 33:0.07627530305964329 576:0.07677980410259062 578:0.10919004081351653 107:0.10919004081351653 201:0.14205951832615937 582:0.1941564076019955 390:0.10919004081351653 112:0.10919004081351653 485:0.10919004081351653 393:0.10919004081351653 115:0.10919004081351653 585:0.10919004081351653 293:0.10919004081351653 47:0.10919004081351653 494:0.10919004081351653 117:0.10919004081351653 591:0.10919004081351653 496:0.10919004081351653 601:0.04676798794835487 124:0.10919004081351653 123:0.10919004081351653 602:0.10919004081351653 399:0.07627530305964329 504:0.10919004081351653 505:0.10919004081351653 305:0.07627530305964329 509:0.07627530305964329 614:0.07627530305964329 406:0.10919004081351653 56:0.10919004081351653 57:0.05901463022257686 316:0.09923645720895657 140:0.08629152289891996 143:0.10919004081351653 320:0.10919004081351653 66:0.14205951832615937 415:0.14205951832615937 146:0.05013204328256997 701:0.05901463022257686 621:0.10919004081351653 522:0.21338381936518888 323:0.10919004081351653 623:0.07627530305964329 324:0.10919004081351653 422:0.10919004081351653 326:0.10919004081351653 328:0.10919004081351653 707:0.10919004081351653 706:0.10919004081351653 75:0.10919004081351653 234:0.09923645720895657 336:0.10919004081351653 
-1.0 344:0.13575238094961253 85:0.20052272727947323 349:0.13575238094961253 174:0.13575238094961253 9:0.0858873613647075 546:0.13575238094961253 443:0.13575238094961253 549:0.09545780126204739 548:0.09483057173395673 547:0.13575238094961253 14:0.13575238094961253 246:0.13575238094961253 452:0.13575238094961253 183:0.13575238094961253 369:0.12337741833184257 371:0.10837778348147523 185:0.09483057173395673 375:0.09483057173395673 662:0.06523231948482358 459:0.03668547288693773 264:0.09483057173395673 380:0.09483057173395673 669:0.07337094577387546 28:0.09483057173395673 467:0.13575238094961253 386:0.058145098847018996 471:0.12465503605957898 271:0.13575238094961253 674:0.13575238094961253 199:0.12337741833184257 476:0.09545780126204739 279:0.13575238094961253 108:0.13575238094961253 41:0.13575238094961253 289:0.17661791959824952 208:0.13575238094961253 207:0.13575238094961253 43:0.07337094577387546 292:0.24138826592811022 45:0.12337741833184257 48:0.16862309970333095 590:0.13575238094961253 592:0.09483057173395673 499:0.13575238094961253 500:0.13575238094961253 400:0.09483057173395673 304:0.13575238094961253 218:0.13575238094961253 509:0.09483057173395673 613:0.13575238094961253 405:0.17661791959824952 619:0.13575238094961253 137:0.13575238094961253 140:0.0858873613647075 520:0.13575238094961253 146:0.05418889174073761 525:0.09483057173395673 149:0.12337741833184257 150:0.07337094577387546 427:0.13575238094961253 529:0.12337741833184257 627:0.13575238094961253 234:0.1400762531054451 162:0.047728900631023696 
-1.0 632:0.12215474526488652 435:0.12215474526488652 79:0.08533186860114586 77:0.15892698770231004 235:0.12215474526488652 83:0.12215474526488652 439:0.08533186860114586 642:0.08533186860114586 238:0.08533186860114586 87:0.12604551681569792 351:0.08533186860114586 241:0.12215474526488652 444:0.06602174582984462 551:0.12215474526488652 445:0.12215474526488652 13:0.12215474526488652 360:0.08533186860114586 243:0.08533186860114586 557:0.12215474526488652 363:0.12215474526488652 367:0.11101932063614821 366:0.18043737059562992 369:0.08533186860114586 660:0.12215474526488652 455:0.08533186860114586 662:0.04294813584536561 192:0.06602174582984462 458:0.12215474526488652 101:0.12215474526488652 377:0.08533186860114586 669:0.06602174582984462 461:0.12215474526488652 194:0.056084482899401315 270:0.12215474526488652 384:0.18043737059562992 386:0.052320995686223545 471:0.06602174582984462 472:0.12215474526488652 105:0.08533186860114586 106:0.06602174582984462 576:0.09752212403896272 200:0.12215474526488652 476:0.06602174582984462 677:0.12215474526488652 281:0.12215474526488652 203:0.08533186860114586 283:0.12215474526488652 40:0.12215474526488652 484:0.15892698770231004 586:0.12215474526488652 589:0.08533186860114586 296:0.12215474526488652 493:0.12215474526488652 683:0.20753724809234952 598:0.12215474526488652 126:0.12215474526488652 502:0.12215474526488652 694:0.12215474526488652 696:0.09752212403896272 514:0.08533186860114586 618:0.15744566350672834 60:0.12215474526488652 140:0.07728445479621657 138:0.12215474526488652 319:0.06602174582984462 412:0.12215474526488652 146:0.0628226617062522 69:0.12215474526488652 149:0.08533186860114586 70:0.12215474526488652 325:0.15892698770231004 528:0.08533186860114586 526:0.12215474526488652 430:0.12215474526488652 334:0.11101932063614821 432:0.12215474526488652 628:0.12215474526488652 337:0.12215474526488652 
