svm_type c_svc
kernel_type rbf
gamma 0.0
nr_class 2
total_sv 12
rho 1.0
label 1 -1
nr_sv 6 6
SV
1.0 1:0.12802432254624285 2:0.07431581783726071 3:0.20510264506820208 4:0.12802432254624285 5:0.06401216127312143 6:0.12802432254624285 7:0.12802432254624285 8:0.04727686198853524 9:0.12802432254624285 10:0.12802432254624285 11:0.04164087095180562 12:0.20510264506820208 13:0.09668710815857653 14:0.12802432254624285 15:0.12802432254624285 16:0.12802432254624285 17:0.12802432254624285 18:0.12802432254624285 19:0.12802432254624285 20:0.20510264506820208 21:0.10255132253410104 22:0.12802432254624285 23:0.16656348380722247 24:0.03200608063656071 25:0.07431581783726071 26:0.16656348380722247 27:0.09601824190968213 28:0.12802432254624285 29:0.12802432254624285 30:0.09601824190968213 31:0.09601824190968213 32:0.12802432254624285 33:0.16656348380722247 34:0.07431581783726071 35:0.09601824190968213 36:0.12802432254624285 37:0.12802432254624285 38:0.21750948383150603 39:0.12802432254624285 40:0.12802432254624285 41:0.18910744795414097 42:0.23621742660422573 43:0.16656348380722247 44:0.12802432254624285 45:0.07431581783726071 46:0.12802432254624285 47:0.12802432254624285 48:0.09601824190968213 49:0.09601824190968213 50:0.12802432254624285 51:0.16656348380722247 52:0.12802432254624285 53:0.12802432254624285 54:0.21750948383150603 55:0.12802432254624285 
1.0 1:0.04909326737434214 2:0.09292320925953405 3:0.1372588474540207 4:0.04029862751333828 5:0.17684122910097633 6:0.09292320925953405 7:0.09292320925953405 8:0.09292320925953405 9:0.09292320925953405 10:0.06194880617302271 11:0.06985571964299604 12:0.11522069406830543 13:0.09292320925953405 14:0.1372588474540207 15:0.09292320925953405 16:0.04909326737434214 17:0.06194880617302271 18:0.07192033674893655 19:0.07192033674893655 20:0.1208958825400148 21:0.07192033674893655 22:0.09292320925953405 23:0.07192033674893655 24:0.09292320925953405 25:0.09292320925953405 26:0.11522069406830543 27:0.09292320925953405 28:0.1208958825400148 29:0.09292320925953405 30:0.093570515408621 31:0.1208958825400148 32:0.06194880617302271 33:0.09150589830268047 34:0.09292320925953405 35:0.09292320925953405 36:0.09292320925953405 37:0.09292320925953405 38:0.09292320925953405 39:0.09292320925953405 40:0.09292320925953405 41:0.07192033674893655 42:0.09292320925953405 43:0.16523152073450145 44:0.07192033674893655 45:0.15787374523858735 46:0.1372588474540207 47:0.09292320925953405 48:0.08059725502667656 49:0.09292320925953405 50:0.09292320925953405 51:0.1208958825400148 52:0.07192033674893655 53:0.09292320925953405 54:0.07192033674893655 55:0.07192033674893655 56:0.08059725502667656 57:0.1208958825400148 58:0.1208958825400148 59:0.030974403086511355 60:0.1372588474540207 61:0.09292320925953405 62:0.1372588474540207 63:0.18159448564850733 64:0.07192033674893655 65:0.093570515408621 66:0.1372588474540207 67:0.09292320925953405 68:0.09292320925953405 69:0.09292320925953405 70:0.09292320925953405 71:0.09292320925953405 72:0.1062350580584498 73:0.10524916349239156 74:0.09292320925953405 75:0.09292320925953405 76:0.09292320925953405 77:0.1208958825400148 78:0.1208958825400148 79:0.09292320925953405 80:0.07192033674893655 81:0.1372588474540207 82:0.093570515408621 83:0.1372588474540207 84:0.030974403086511355 85:0.06194880617302271 86:0.07192033674893655 87:0.07251670870227613 88:0.093570515408621 89:0.093570515408621 90:0.093570515408621 91:0.09292320925953405 92:0.22739777783756246 93:0.09292320925953405 94:0.09292320925953405 95:0.12788523671813426 96:0.09292320925953405 97:0.030974403086511355 
1.0 1:0.1350905802866156 2:0.12010574212584878 3:0.0878784485422701 4:0.1350905802866156 5:0.0675452901433078 6:0.1082116069412324 7:0.13181767281340515 8:0.0784176534305324 9:0.1350905802866156 10:0.1013179352149617 11:0.1350905802866156 12:0.1350905802866156 13:0.1350905802866156 14:0.1350905802866156 15:0.1350905802866156 16:0.0675452901433078 17:0.1350905802866156 18:0.24021148425169755 19:0.0337726450716539 20:0.1350905802866156 21:0.0784176534305324 22:0.10202371930270518 23:0.1350905802866156 24:0.1013179352149617 25:0.1350905802866156 26:0.1350905802866156 27:0.1350905802866156 28:0.1350905802866156 29:0.1757568970845402 30:0.0541058034706162 31:0.1757568970845402 32:0.0784176534305324 33:0.1013179352149617 34:0.1013179352149617 35:0.1013179352149617 36:0.1013179352149617 37:0.1350905802866156 38:0.1350905802866156 39:0.0784176534305324 40:0.1013179352149617 41:0.1350905802866156 42:0.11583238262747966 43:0.0541058034706162 44:0.1350905802866156 45:0.1350905802866156 46:0.1013179352149617 47:0.1350905802866156 48:0.1013179352149617 49:0.0784176534305324 50:0.1013179352149617 51:0.1350905802866156 52:0.1350905802866156 53:0.10202371930270518 54:0.1013179352149617 55:0.19954516745377293 56:0.1350905802866156 57:0.0675452901433078 58:0.1013179352149617 59:0.22951484377530657 60:0.1350905802866156 61:0.0784176534305324 62:0.1013179352149617 63:0.1350905802866156 64:0.1757568970845402 65:0.0784176534305324 
1.0 1:0.15266677440111692 2:0.09931202641855957 3:0.09931202641855957 4:0.18343599845484104 5:0.056376834339345365 6:0.15266677440111692 7:0.15266677440111692 8:0.11450008080083769 9:0.08862031815944604 10:0.07633338720055846 11:0.11450008080083769 12:0.11529769215072473 13:0.11529769215072473 14:0.15266677440111692 15:0.11450008080083769 16:0.11450008080083769 17:0.11450008080083769 18:0.08862031815944604 19:0.14896803962783936 20:0.14896803962783936 21:0.07633338720055846 22:0.11450008080083769 23:0.056376834339345365 24:0.11450008080083769 25:0.11450008080083769 26:0.11450008080083769 27:0.14896803962783936 28:0.11450008080083769 29:0.2714646157933837 30:0.15266677440111692 31:0.08862031815944604 32:0.11450008080083769 33:0.11529769215072473 34:0.0726346524272809 35:0.15266677440111692 36:0.15266677440111692 37:0.15266677440111692 38:0.15266677440111692 39:0.11450008080083769 40:0.11450008080083769 41:0.08862031815944604 42:0.15266677440111692 43:0.15266677440111692 44:0.14896803962783936 45:0.11450008080083769 46:0.11450008080083769 47:0.11450008080083769 48:0.15266677440111692 49:0.19862405283711915 50:0.11450008080083769 51:0.15266677440111692 52:0.08862031815944604 53:0.11450008080083769 54:0.15266677440111692 55:0.03816669360027923 56:0.096913059611089 57:0.14896803962783936 58:0.14896803962783936 59:0.15266677440111692 60:0.03816669360027923 
1.0 1:0.09205091940447852 2:0.09205091940447852 3:0.06342311412967966 4:0.10836085295155438 5:0.10836085295155438 6:0.17360058713985782 7:0.10836085295155438 8:0.08127063971366578 9:0.04001552976857321 10:0.06290152721354307 11:0.08127063971366578 12:0.10836085295155438 13:0.05418042647577719 14:0.027090213237888596 15:0.08183677367789376 16:0.10836085295155438 17:0.10836085295155438 18:0.08127063971366578 19:0.10836085295155438 20:0.1409807200457061 21:0.10836085295155438 22:0.10836085295155438 23:0.10836085295155438 24:0.08127063971366578 25:0.04293697211859328 26:0.05418042647577719 27:0.03524518001142653 28:0.08127063971366578 29:0.08127063971366578 30:0.08127063971366578 31:0.10836085295155438 32:0.08127063971366578 33:0.08127063971366578 34:0.08127063971366578 35:0.10836085295155438 36:0.10573554003427957 37:0.08127063971366578 38:0.10836085295155438 39:0.1409807200457061 40:0.08127063971366578 41:0.10836085295155438 42:0.10836085295155438 43:0.08127063971366578 44:0.10573554003427957 45:0.08127063971366578 46:0.10573554003427957 47:0.10836085295155438 48:0.18410183880895703 49:0.09291318280145174 50:0.1926819861684446 51:0.10836085295155438 52:0.05418042647577719 53:0.10836085295155438 54:0.13807637910671777 55:0.17360058713985782 56:0.06290152721354307 57:0.16006211907429285 58:0.10836085295155438 59:0.10836085295155438 60:0.08127063971366578 61:0.08127063971366578 62:0.05418042647577719 63:0.06290152721354307 64:0.10573554003427957 65:0.027090213237888596 66:0.08127063971366578 67:0.06290152721354307 68:0.12004658930571963 69:0.10836085295155438 70:0.1409807200457061 71:0.10836085295155438 72:0.10836085295155438 73:0.10836085295155438 74:0.10836085295155438 75:0.06290152721354307 76:0.10836085295155438 77:0.05418042647577719 78:0.10836085295155438 79:0.06290152721354307 80:0.08127063971366578 81:0.05418042647577719 82:0.10836085295155438 83:0.10836085295155438 84:0.10836085295155438 85:0.10836085295155438 86:0.10836085295155438 87:0.08127063971366578 88:0.10836085295155438 89:0.08127063971366578 90:0.10836085295155438 91:0.08127063971366578 92:0.027090213237888596 93:0.05586228864927789 94:0.06290152721354307 95:0.10836085295155438 96:0.10836085295155438 97:0.1409807200457061 98:0.1409807200457061 99:0.10836085295155438 100:0.027090213237888596 
1.0 1:0.08122254851259736 2:0.08122254851259736 3:0.10567297193916204 4:0.08122254851259736 5:0.06091691138444801 6:0.11997555277045645 7:0.08122254851259736 8:0.08122254851259736 9:0.10567297193916204 10:0.06091691138444801 11:0.08122254851259736 12:0.06091691138444801 13:0.07553429187545423 14:0.06091691138444801 15:0.06964365166934104 16:0.08122254851259736 17:0.02030563712814934 18:0.08122254851259736 19:0.08122254851259736 20:0.08122254851259736 21:0.08122254851259736 22:0.04714822933243789 23:0.08122254851259736 24:0.10567297193916204 25:0.08122254851259736 26:0.08122254851259736 27:0.032183673401367935 28:0.08122254851259736 29:0.032183673401367935 30:0.08122254851259736 31:0.08122254851259736 32:0.11997555277045645 33:0.04714822933243789 34:0.08122254851259736 35:0.08122254851259736 36:0.11997555277045645 37:0.07553429187545423 38:0.03253084884143168 39:0.15457381879229143 40:0.06134126060394607 41:0.04061127425629868 42:0.10567297193916204 43:0.06091691138444801 44:0.08122254851259736 45:0.16244509702519472 46:0.08122254851259736 47:0.08122254851259736 48:0.17431398849212096 49:0.1498635650655563 50:0.08122254851259736 51:0.06091691138444801 52:0.06091691138444801 53:0.08122254851259736 54:0.08122254851259736 55:0.08122254851259736 56:0.11239767379916721 57:0.06091691138444801 58:0.04061127425629868 59:0.08122254851259736 60:0.08122254851259736 61:0.11997555277045645 62:0.08122254851259736 63:0.10567297193916204 64:0.08122254851259736 65:0.08122254851259736 66:0.08122254851259736 67:0.11239767379916721 68:0.08122254851259736 69:0.11997555277045645 70:0.11997555277045645 71:0.08122254851259736 72:0.06091691138444801 73:0.06091691138444801 74:0.08122254851259736 75:0.08122254851259736 76:0.08122254851259736 77:0.10567297193916204 78:0.08122254851259736 79:0.08122254851259736 80:0.08122254851259736 81:0.10567297193916204 82:0.08122254851259736 83:0.08122254851259736 84:0.04714822933243789 85:0.08122254851259736 86:0.04714822933243789 87:0.08122254851259736 88:0.08998166457784235 89:0.08122254851259736 90:0.08122254851259736 91:0.10567297193916204 92:0.02030563712814934 93:0.08122254851259736 94:0.04714822933243789 95:0.10567297193916204 96:0.05283648596958102 97:0.08122254851259736 98:0.08122254851259736 99:0.08122254851259736 100:0.11997555277045645 101:0.0921390740062442 102:0.10567297193916204 103:0.08122254851259736 104:0.08122254851259736 105:0.04061127425629868 106:0.08122254851259736 107:0.08122254851259736 108:0.10567297193916204 109:0.06091691138444801 110:0.11997555277045645 111:0.05283648596958102 112:0.11997555277045645 113:0.08122254851259736 114:0.10567297193916204 115:0.08122254851259736 116:0.07925472895437152 117:0.04714822933243789 118:0.08122254851259736 119:0.08122254851259736 120:0.08122254851259736 121:0.08122254851259736 122:0.06091691138444801 123:0.07553429187545423 124:0.04714822933243789 125:0.06964365166934104 126:0.08122254851259736 127:0.08122254851259736 128:0.02030563712814934 129:0.08122254851259736 130:0.11997555277045645 131:0.05283648596958102 132:0.08122254851259736 133:0.08122254851259736 134:0.04714822933243789 135:0.08122254851259736 136:0.08122254851259736 137:0.08122254851259736 138:0.10349600519897252 139:0.029993888192614112 
-1.0 1:0.1393364532955974 2:0.20581683672018047 3:0.1393364532955974 4:0.1393364532955974 5:0.10290841836009024 6:0.1393364532955974 7:0.1393364532955974 8:0.1393364532955974 9:0.10523030672829942 10:0.10450233997169804 11:0.1393364532955974 12:0.1393364532955974 13:0.1393364532955974 14:0.1393364532955974 15:0.10523030672829942 16:0.11947297389535799 17:0.10450233997169804 18:0.10450233997169804 19:0.061940322162897174 20:0.03483411332389935 21:0.10450233997169804 22:0.10450233997169804 23:0.0808823063872521 24:0.0808823063872521 25:0.10450233997169804 26:0.03483411332389935 27:0.11836422732989328 28:0.1393364532955974 29:0.1393364532955974 30:0.1359606789202542 31:0.0906404526135028 32:0.10450233997169804 33:0.1393364532955974 34:0.1393364532955974 35:0.1812809052270056 36:0.0696682266477987 37:0.1393364532955974 38:0.1393364532955974 39:0.2477612886515887 40:0.1359606789202542 41:0.12388064432579435 42:0.10450233997169804 43:0.0808823063872521 44:0.10450233997169804 45:0.1393364532955974 46:0.0808823063872521 47:0.1393364532955974 48:0.10450233997169804 49:0.10450233997169804 50:0.1393364532955974 51:0.1812809052270056 52:0.1393364532955974 53:0.1393364532955974 54:0.05145420918004512 55:0.1393364532955974 56:0.05145420918004512 57:0.10450233997169804 58:0.1359606789202542 59:0.0808823063872521 60:0.1393364532955974 61:0.1359606789202542 62:0.1393364532955974 63:0.15436262754013536 64:0.0453202263067514 
-1.0 1:0.1366192467303443 2:0.10246443504775822 3:0.13330930348589717 4:0.07930501682138372 5:0.10246443504775822 6:0.1366192467303443 7:0.07930501682138372 8:0.10246443504775822 9:0.15135239486188598 10:0.10246443504775822 11:0.07930501682138372 12:0.1366192467303443 13:0.07930501682138372 14:0.10246443504775822 15:0.1366192467303443 16:0.1366192467303443 17:0.07930501682138372 18:0.07930501682138372 19:0.1366192467303443 20:0.1366192467303443 21:0.15135239486188598 22:0.10317820569125684 23:0.07930501682138372 24:0.1366192467303443 25:0.10246443504775822 26:0.04443643449529906 27:0.05413409573609179 28:0.10246443504775822 29:0.10246443504775822 30:0.10246443504775822 31:0.1366192467303443 32:0.058028000552459165 33:0.07930501682138372 34:0.10246443504775822 35:0.20180319314918133 36:0.03415481168258608 37:0.06830962336517216 38:0.1366192467303443 39:0.10246443504775822 40:0.06830962336517216 41:0.07996262341681022 42:0.1366192467303443 43:0.06830962336517216 44:0.10246443504775822 45:0.10246443504775822 46:0.07930501682138372 47:0.1366192467303443 48:0.1366192467303443 49:0.13330930348589717 50:0.10246443504775822 51:0.07930501682138372 52:0.10246443504775822 53:0.1366192467303443 54:0.1740840016573775 55:0.10246443504775822 56:0.1366192467303443 57:0.1366192467303443 58:0.10246443504775822 59:0.10090159657459066 60:0.07930501682138372 61:0.14632553110043278 62:0.10246443504775822 63:0.1366192467303443 64:0.05045079828729533 65:0.07930501682138372 66:0.10246443504775822 67:0.06499968012072502 68:0.1366192467303443 69:0.10246443504775822 70:0.10246443504775822 71:0.17774573798119625 72:0.1366192467303443 73:0.1366192467303443 74:0.10246443504775822 75:0.13330930348589717 76:0.10246443504775822 77:0.1366192467303443 78:0.10246443504775822 
-1.0 1:0.08719998660753434 2:0.04606956961210965 3:0.1162666488100458 4:0.06749069959261192 5:0.1162666488100458 6:0.1162666488100458 7:0.08719998660753434 8:0.17173993817234517 9:0.1288049536292589 10:0.11344979819789962 11:0.1162666488100458 12:0.08780742459833495 13:0.1162666488100458 14:0.1162666488100458 15:0.0996919468641467 16:0.1162666488100458 17:0.1162666488100458 18:0.1162666488100458 19:0.07563319879859975 20:0.1162666488100458 21:0.1162666488100458 22:0.08719998660753434 23:0.17173993817234517 24:0.08719998660753434 25:0.11344979819789962 26:0.04606956961210965 27:0.1512663975971995 28:0.11344979819789962 29:0.1162666488100458 30:0.11344979819789962 31:0.1162666488100458 32:0.1162666488100458 33:0.17173993817234517 34:0.08719998660753434 35:0.1162666488100458 36:0.02906666220251145 37:0.1162666488100458 38:0.1162666488100458 39:0.04606956961210965 40:0.0581333244050229 41:0.1162666488100458 42:0.08719998660753434 43:0.1162666488100458 44:0.06749069959261192 45:0.08719998660753434 46:0.08719998660753434 47:0.1162666488100458 48:0.08719998660753434 49:0.08719998660753434 50:0.08719998660753434 51:0.08719998660753434 52:0.1162666488100458 53:0.11344979819789962 54:0.06749069959261192 55:0.1162666488100458 56:0.1512663975971995 57:0.11344979819789962 58:0.1162666488100458 59:0.08719998660753434 60:0.10336984347974945 61:0.08719998660753434 62:0.1162666488100458 63:0.08719998660753434 64:0.08719998660753434 65:0.1162666488100458 66:0.17173993817234517 67:0.1162666488100458 68:0.1162666488100458 69:0.11344979819789962 70:0.1162666488100458 71:0.08719998660753434 72:0.1288049536292589 73:0.1162666488100458 74:0.08719998660753434 75:0.1162666488100458 76:0.04938338720823446 77:0.1396996097882649 78:0.042934984543086294 79:0.1512663975971995 80:0.06749069959261192 81:0.08719998660753434 82:0.1162666488100458 83:0.11344979819789962 84:0.1162666488100458 85:0.1162666488100458 
-1.0 1:0.14298441980461057 2:0.14298441980461057 3:0.14298441980461057 4:0.10723831485345793 5:0.08299988536887358 6:0.139520264308807 7:0.08299988536887358 8:0.10723831485345793 9:0.10723831485345793 10:0.08299988536887358 11:0.08299988536887358 12:0.18602701907840938 13:0.10723831485345793 14:0.14298441980461057 15:0.08299988536887358 16:0.139520264308807 17:0.139520264308807 18:0.10798534050157654 19:0.14298441980461057 20:0.08299988536887358 21:0.14298441980461057 22:0.14298441980461057 23:0.035746104951152644 24:0.10723831485345793 25:0.10723831485345793 26:0.0566562358944198 27:0.14298441980461057 28:0.035746104951152644 29:0.14298441980461057 30:0.10723831485345793 31:0.035746104951152644 32:0.14298441980461057 33:0.07149220990230529 34:0.14298441980461057 35:0.14298441980461057 36:0.07149220990230529 37:0.14298441980461057 38:0.07371146234005449 39:0.14298441980461057 40:0.14298441980461057 41:0.14298441980461057 42:0.08299988536887358 43:0.14298441980461057 44:0.14298441980461057 45:0.10723831485345793 46:0.09301350953920469 47:0.08299988536887358 48:0.10723831485345793 49:0.08299988536887358 50:0.10723831485345793 51:0.07149220990230529 52:0.10723831485345793 53:0.14298441980461057 54:0.14298441980461057 55:0.10723831485345793 56:0.08299988536887358 57:0.10723831485345793 58:0.10723831485345793 59:0.07149220990230529 60:0.08299988536887358 61:0.1329707956342795 62:0.09301350953920469 63:0.046506754769602345 64:0.14298441980461057 65:0.10723831485345793 66:0.14298441980461057 67:0.14298441980461057 68:0.06356198121523704 69:0.14298441980461057 70:0.10723831485345793 71:0.08299988536887358 72:0.14298441980461057 73:0.10723831485345793 74:0.10723831485345793 75:0.14298441980461057 
-1.0 1:0.13602302077416978 2:0.11554951609724479 3:0.10895851974093484 4:0.08848501506400987 5:0.17697003012801973 6:0.13602302077416978 7:0.10201726558062733 8:0.050230623779175095 9:0.07895891837174804 10:0.10201726558062733 11:0.13602302077416978 12:0.06801151038708489 13:0.034005755193542445 14:0.13602302077416978 15:0.1506918713375253 16:0.06801151038708489 17:0.13602302077416978 18:0.16343777961140227 19:0.13602302077416978 20:0.13272752259601478 21:0.13602302077416978 22:0.05389784679046848 23:0.20092249511670038 24:0.13602302077416978 25:0.13602302077416978 26:0.20092249511670038 27:0.06801151038708489 28:0.07895891837174804 29:0.17697003012801973 30:0.17697003012801973 31:0.10201726558062733 32:0.07895891837174804 33:0.17697003012801973 34:0.13602302077416978 35:0.13602302077416978 36:0.13602302077416978 37:0.13602302077416978 38:0.12649692408190796 39:0.10272792122682801 40:0.050230623779175095 41:0.13602302077416978 42:0.13602302077416978 43:0.13602302077416978 44:0.17697003012801973 45:0.17697003012801973 46:0.13602302077416978 47:0.17697003012801973 48:0.17697003012801973 49:0.13602302077416978 50:0.13602302077416978 51:0.034005755193542445 52:0.10201726558062733 53:0.07895891837174804 54:0.07012271537610112 55:0.13602302077416978 56:0.2179170394818697 57:0.13602302077416978 58:0.10201726558062733 
-1.0 1:0.04909326737434214 2:0.09292320925953405 3:0.1372588474540207 4:0.04029862751333828 5:0.17684122910097633 6:0.09292320925953405 7:0.09292320925953405 8:0.09292320925953405 9:0.09292320925953405 10:0.06194880617302271 11:0.06985571964299604 12:0.11522069406830543 13:0.09292320925953405 14:0.1372588474540207 15:0.09292320925953405 16:0.04909326737434214 17:0.06194880617302271 18:0.07192033674893655 19:0.07192033674893655 20:0.1208958825400148 21:0.07192033674893655 22:0.09292320925953405 23:0.07192033674893655 24:0.09292320925953405 25:0.09292320925953405 26:0.11522069406830543 27:0.09292320925953405 28:0.1208958825400148 29:0.09292320925953405 30:0.093570515408621 31:0.1208958825400148 32:0.06194880617302271 33:0.09150589830268047 34:0.09292320925953405 35:0.09292320925953405 36:0.09292320925953405 37:0.09292320925953405 38:0.09292320925953405 39:0.09292320925953405 40:0.09292320925953405 41:0.07192033674893655 42:0.09292320925953405 43:0.16523152073450145 44:0.07192033674893655 45:0.15787374523858735 46:0.1372588474540207 47:0.09292320925953405 48:0.08059725502667656 49:0.09292320925953405 50:0.09292320925953405 51:0.1208958825400148 52:0.07192033674893655 53:0.09292320925953405 54:0.07192033674893655 55:0.07192033674893655 56:0.08059725502667656 57:0.1208958825400148 58:0.1208958825400148 59:0.030974403086511355 60:0.1372588474540207 61:0.09292320925953405 62:0.1372588474540207 63:0.18159448564850733 64:0.07192033674893655 65:0.093570515408621 66:0.1372588474540207 67:0.09292320925953405 68:0.09292320925953405 69:0.09292320925953405 70:0.09292320925953405 71:0.09292320925953405 72:0.1062350580584498 73:0.10524916349239156 74:0.09292320925953405 75:0.09292320925953405 76:0.09292320925953405 77:0.1208958825400148 78:0.1208958825400148 79:0.09292320925953405 80:0.07192033674893655 81:0.1372588474540207 82:0.093570515408621 83:0.1372588474540207 84:0.030974403086511355 85:0.06194880617302271 86:0.07192033674893655 87:0.07251670870227613 88:0.093570515408621 89:0.093570515408621 90:0.093570515408621 91:0.09292320925953405 92:0.22739777783756246 93:0.09292320925953405 94:0.09292320925953405 95:0.12788523671813426 96:0.09292320925953405 97:0.030974403086511355 
